svm_type c_svc
kernel_type rbf
gamma 0.01
nr_class 2
total_sv 24
rho -0.00324249
label 1 -1
nr_sv 12 12
SV
50 2:0.52631579 5:0.15789474 37:0.15789474 44:0.026315789 66:0.052631579 81:0.052631579 87:0.026315789 
50 2:0.58064516 5:0.064516129 37:0.25806452 44:0.032258065 51:0.032258065 66:0.032258065 
50 2:0.55319149 5:0.12765957 37:0.021276596 44:0.021276596 66:0.021276596 81:0.23404255 97:0.021276596 
50 2:0.51219512 5:0.073170732 6:0.024390244 37:0.048780488 50:0.024390244 54:0.073170732 87:0.073170732 97:0.17073171 
50 2:0.475 5:0.05 54:0.1 66:0.025 83:0.025 87:0.1 97:0.225 
50 2:0.5 3:0.022727273 5:0.068181818 24:0.045454545 87:0.11363636 97:0.25 
10.36051634166438 2:0.51282051 5:0.025641026 37:0.025641026 44:0.025641026 80:0.025641026 87:0.38461538 
50 1:0.029411765 2:0.44117647 5:0.14705882 56:0.029411765 59:0.029411765 87:0.29411765 98:0.029411765 
50 2:0.45454545 5:0.20454545 50:0.022727273 66:0.022727273 71:0.022727273 80:0.090909091 85:0.022727273 87:0.15909091 
50 2:0.52272727 5:0.25 6:0.022727273 37:0.11363636 87:0.045454545 92:0.022727273 97:0.022727273 
50 2:0.45454545 5:0.12121212 6:0.03030303 37:0.18181818 54:0.15151515 87:0.03030303 97:0.03030303 
50 2:0.58333333 5:0.083333333 17:0.055555556 56:0.027777778 66:0.027777778 81:0.16666667 87:0.055555556 
-50 2:0.25641026 39:0.051282051 49:0.30769231 54:0.15384615 61:0.051282051 68:0.1025641 90:0.025641026 94:0.025641026 100:0.025641026 
-50 2:0.1875 18:0.09375 35:0.03125 37:0.03125 43:0.03125 49:0.3125 54:0.03125 70:0.03125 84:0.03125 92:0.21875 
-50 2:0.39393939 4:0.03030303 8:0.015151515 17:0.12121212 37:0.090909091 43:0.10606061 54:0.015151515 55:0.03030303 56:0.015151515 61:0.03030303 68:0.015151515 81:0.10606061 90:0.015151515 93:0.015151515 
-50 2:0.20930233 5:0.046511628 9:0.20930233 37:0.023255814 44:0.023255814 45:0.023255814 49:0.18604651 53:0.023255814 55:0.13953488 88:0.023255814 89:0.023255814 97:0.069767442 
-50 2:0.26 5:0.02 29:0.1 35:0.04 49:0.02 52:0.2 53:0.02 55:0.34 
-50 2:0.43548387 3:0.11290323 17:0.016129032 37:0.048387097 42:0.12903226 49:0.032258065 53:0.048387097 54:0.032258065 55:0.048387097 64:0.016129032 81:0.064516129 100:0.016129032 
-50 2:0.33333333 10:0.041666667 11:0.020833333 12:0.14583333 39:0.083333333 40:0.041666667 49:0.125 54:0.1875 78:0.020833333 
-50 2:0.47826087 5:0.02173913 11:0.02173913 27:0.02173913 37:0.02173913 49:0.086956522 54:0.043478261 55:0.2826087 69:0.02173913 
-50 2:0.048780488 14:0.024390244 24:0.024390244 28:0.024390244 37:0.41463415 41:0.024390244 46:0.024390244 49:0.048780488 54:0.024390244 55:0.048780488 62:0.073170732 65:0.048780488 91:0.14634146 93:0.024390244 
-10.36051634166438 2:0.065217391 7:0.02173913 12:0.02173913 26:0.086956522 29:0.02173913 37:0.02173913 38:0.065217391 46:0.02173913 54:0.02173913 55:0.39130435 65:0.02173913 79:0.02173913 85:0.02173913 90:0.15217391 93:0.043478261 
-50 2:0.20588235 12:0.14705882 13:0.26470588 34:0.088235294 40:0.058823529 49:0.029411765 55:0.17647059 80:0.029411765 
-50 2:0.41891892 17:0.16216216 30:0.013513514 37:0.067567568 45:0.013513514 54:0.013513514 55:0.027027027 57:0.054054054 63:0.013513514 69:0.040540541 72:0.013513514 77:0.12162162 81:0.027027027 95:0.013513514 
