svm_type c_svc
kernel_type rbf
gamma 0.01
nr_class 2
total_sv 18
rho 0.232278
label 1 -1
nr_sv 9 9
SV
50 2:0.52631579 5:0.15789474 37:0.15789474 44:0.026315789 66:0.052631579 81:0.052631579 87:0.026315789 
49.04410807667459 2:0.55319149 5:0.12765957 37:0.021276596 44:0.021276596 66:0.021276596 81:0.23404255 97:0.021276596 
50 2:0.51219512 5:0.073170732 6:0.024390244 37:0.048780488 50:0.024390244 54:0.073170732 87:0.073170732 97:0.17073171 
50 2:0.475 5:0.05 54:0.1 66:0.025 83:0.025 87:0.1 97:0.225 
50 2:0.5 3:0.022727273 5:0.068181818 24:0.045454545 87:0.11363636 97:0.25 
3.260727847864411 2:0.51282051 5:0.025641026 37:0.025641026 44:0.025641026 80:0.025641026 87:0.38461538 
50 1:0.029411765 2:0.44117647 5:0.14705882 56:0.029411765 59:0.029411765 87:0.29411765 98:0.029411765 
50 2:0.45454545 5:0.20454545 50:0.022727273 66:0.022727273 71:0.022727273 80:0.090909091 85:0.022727273 87:0.15909091 
50 2:0.45454545 5:0.12121212 6:0.03030303 37:0.18181818 54:0.15151515 87:0.03030303 97:0.03030303 
-36.788221787244 1:0.022222222 2:0.088888889 17:0.066666667 25:0.022222222 34:0.044444444 36:0.022222222 39:0.15555556 40:0.044444444 60:0.33333333 71:0.11111111 80:0.066666667 98:0.022222222 
-50 1:0.014705882 2:0.029411765 3:0.014705882 4:0.058823529 8:0.029411765 9:0.058823529 17:0.029411765 20:0.029411765 25:0.058823529 29:0.014705882 32:0.058823529 35:0.014705882 36:0.014705882 37:0.029411765 40:0.014705882 41:0.014705882 45:0.029411765 50:0.029411765 51:0.014705882 54:0.029411765 56:0.029411765 67:0.058823529 70:0.029411765 71:0.014705882 76:0.014705882 79:0.014705882 80:0.029411765 84:0.044117647 86:0.029411765 87:0.029411765 88:0.014705882 97:0.014705882 98:0.029411765 99:0.058823529 
-35.19403638217729 2:0.066666667 12:0.066666667 22:0.11111111 37:0.022222222 39:0.33333333 47:0.022222222 60:0.17777778 74:0.022222222 79:0.15555556 87:0.022222222 
-50 2:0.058823529 6:0.11764706 17:0.029411765 19:0.26470588 32:0.029411765 33:0.17647059 36:0.029411765 50:0.029411765 63:0.058823529 70:0.029411765 71:0.029411765 82:0.088235294 83:0.029411765 87:0.029411765 
-50 1:0.11764706 2:0.058823529 10:0.029411765 14:0.029411765 17:0.058823529 36:0.17647059 37:0.058823529 55:0.029411765 60:0.029411765 81:0.26470588 87:0.058823529 98:0.088235294 
-50 1:0.023809524 2:0.047619048 6:0.023809524 10:0.023809524 11:0.071428571 14:0.047619048 17:0.023809524 18:0.047619048 21:0.19047619 34:0.023809524 46:0.047619048 71:0.047619048 80:0.023809524 81:0.14285714 87:0.047619048 97:0.095238095 100:0.071428571 
-30.32257775511771 1:0.019607843 2:0.039215686 5:0.039215686 6:0.019607843 9:0.039215686 11:0.019607843 16:0.058823529 17:0.019607843 19:0.019607843 27:0.019607843 28:0.019607843 32:0.019607843 36:0.078431373 39:0.019607843 40:0.019607843 43:0.019607843 46:0.039215686 50:0.019607843 51:0.078431373 60:0.058823529 67:0.019607843 71:0.11764706 80:0.098039216 87:0.058823529 88:0.019607843 89:0.019607843 
-50 2:0.037735849 5:0.1509434 12:0.018867925 17:0.018867925 24:0.018867925 30:0.075471698 36:0.075471698 37:0.037735849 39:0.018867925 49:0.018867925 50:0.018867925 51:0.32075472 60:0.037735849 71:0.018867925 73:0.037735849 80:0.018867925 81:0.018867925 87:0.018867925 88:0.037735849 
-50 2:0.058823529 5:0.20588235 17:0.029411765 36:0.26470588 60:0.058823529 71:0.029411765 76:0.14705882 87:0.11764706 97:0.088235294 
