svm_type c_svc
kernel_type rbf
gamma 0.01
nr_class 2
total_sv 20
rho 0.327967
label 1 -1
nr_sv 9 11
SV
48.20395905973557 2:0.52631579 5:0.15789474 37:0.15789474 44:0.026315789 66:0.052631579 81:0.052631579 87:0.026315789 
50 2:0.51219512 5:0.073170732 6:0.024390244 37:0.048780488 50:0.024390244 54:0.073170732 87:0.073170732 97:0.17073171 
50 2:0.475 5:0.05 54:0.1 66:0.025 83:0.025 87:0.1 97:0.225 
50 2:0.5 3:0.022727273 5:0.068181818 24:0.045454545 87:0.11363636 97:0.25 
43.21928280434033 2:0.51282051 5:0.025641026 37:0.025641026 44:0.025641026 80:0.025641026 87:0.38461538 
50 1:0.029411765 2:0.44117647 5:0.14705882 56:0.029411765 59:0.029411765 87:0.29411765 98:0.029411765 
50 2:0.45454545 5:0.20454545 50:0.022727273 66:0.022727273 71:0.022727273 80:0.090909091 85:0.022727273 87:0.15909091 
50 2:0.52272727 5:0.25 6:0.022727273 37:0.11363636 87:0.045454545 92:0.022727273 97:0.022727273 
50 2:0.45454545 5:0.12121212 6:0.03030303 37:0.18181818 54:0.15151515 87:0.03030303 97:0.03030303 
-50 2:0.046511628 5:0.27906977 20:0.23255814 51:0.023255814 80:0.20930233 87:0.20930233 
-50 2:0.052631579 5:0.31578947 17:0.026315789 32:0.31578947 51:0.052631579 53:0.026315789 80:0.052631579 87:0.15789474 
-2.866042533461032 2:0.024390244 4:0.024390244 5:0.073170732 9:0.012195122 17:0.012195122 20:0.48780488 37:0.097560976 51:0.012195122 60:0.048780488 66:0.012195122 71:0.036585366 80:0.073170732 81:0.012195122 87:0.048780488 97:0.024390244 
-50 2:0.060606061 5:0.075757576 6:0.060606061 9:0.015151515 12:0.015151515 14:0.015151515 24:0.015151515 28:0.13636364 33:0.015151515 35:0.015151515 37:0.10606061 47:0.045454545 50:0.03030303 54:0.13636364 56:0.015151515 64:0.015151515 66:0.015151515 67:0.015151515 72:0.015151515 81:0.015151515 84:0.015151515 86:0.015151515 88:0.015151515 93:0.015151515 97:0.090909091 100:0.015151515 
-50 2:0.26829268 5:0.048780488 20:0.048780488 22:0.024390244 50:0.36585366 51:0.048780488 60:0.024390244 74:0.048780488 80:0.024390244 87:0.097560976 
-50 2:0.028985507 4:0.014492754 5:0.14492754 14:0.028985507 17:0.028985507 27:0.028985507 37:0.028985507 50:0.086956522 51:0.1884058 54:0.072463768 58:0.014492754 60:0.014492754 64:0.028985507 70:0.014492754 71:0.014492754 81:0.014492754 87:0.14492754 97:0.10144928 
-21.31703185393074 2:0.034482759 5:0.017241379 24:0.051724138 29:0.27586207 33:0.034482759 47:0.034482759 50:0.12068966 54:0.051724138 56:0.017241379 58:0.017241379 60:0.034482759 71:0.017241379 87:0.051724138 89:0.034482759 97:0.20689655 
-17.24016747668413 2:0.058823529 27:0.088235294 50:0.14705882 54:0.029411765 88:0.38235294 96:0.029411765 97:0.26470588 
-50 2:0.085714286 5:0.028571429 7:0.17142857 17:0.028571429 37:0.028571429 50:0.2 81:0.085714286 87:0.085714286 88:0.028571429 89:0.028571429 97:0.22857143 
-50 2:0.064516129 4:0.25806452 27:0.032258065 50:0.064516129 54:0.032258065 74:0.064516129 86:0.032258065 87:0.064516129 96:0.032258065 97:0.35483871 
-50 2:0.060606061 5:0.27272727 17:0.33333333 50:0.090909091 81:0.090909091 87:0.15151515 
