svm_type c_svc
kernel_type rbf
gamma 0.01
nr_class 2
total_sv 19
rho 0.26236
label 1 -1
nr_sv 9 10
SV
50 2:0.52631579 5:0.15789474 37:0.15789474 44:0.026315789 66:0.052631579 81:0.052631579 87:0.026315789 
20.90572123517256 2:0.58064516 5:0.064516129 37:0.25806452 44:0.032258065 51:0.032258065 66:0.032258065 
17.04475937213631 2:0.55319149 5:0.12765957 37:0.021276596 44:0.021276596 66:0.021276596 81:0.23404255 97:0.021276596 
50 2:0.51219512 5:0.073170732 6:0.024390244 37:0.048780488 50:0.024390244 54:0.073170732 87:0.073170732 97:0.17073171 
50 2:0.475 5:0.05 54:0.1 66:0.025 83:0.025 87:0.1 97:0.225 
10.9183439811041 2:0.5 3:0.022727273 5:0.068181818 24:0.045454545 87:0.11363636 97:0.25 
50 1:0.029411765 2:0.44117647 5:0.14705882 56:0.029411765 59:0.029411765 87:0.29411765 98:0.029411765 
50 2:0.45454545 5:0.20454545 50:0.022727273 66:0.022727273 71:0.022727273 80:0.090909091 85:0.022727273 87:0.15909091 
50 2:0.45454545 5:0.12121212 6:0.03030303 37:0.18181818 54:0.15151515 87:0.03030303 97:0.03030303 
-50 2:0.097560976 17:0.46341463 53:0.19512195 81:0.24390244 
-35.89128205989278 2:0.057971014 35:0.043478261 37:0.028985507 49:0.46376812 54:0.17391304 55:0.23188406 
-50 2:0.02173913 5:0.010869565 6:0.010869565 14:0.010869565 15:0.065217391 24:0.23913043 26:0.02173913 37:0.13043478 49:0.054347826 53:0.076086957 54:0.086956522 55:0.13043478 64:0.02173913 69:0.02173913 81:0.043478261 93:0.010869565 97:0.02173913 100:0.02173913 
-3.067782455970833 2:0.023529412 24:0.28235294 26:0.047058824 37:0.10588235 48:0.035294118 49:0.10588235 53:0.070588235 54:0.15294118 55:0.10588235 59:0.035294118 81:0.011764706 88:0.011764706 93:0.011764706 
-50 2:0.016528926 7:0.0082644628 8:0.016528926 24:0.0082644628 26:0.0082644628 35:0.0082644628 37:0.11570248 38:0.024793388 46:0.0082644628 47:0.016528926 48:0.0082644628 49:0.082644628 53:0.016528926 54:0.44628099 55:0.11570248 88:0.0082644628 97:0.090909091 
-1.52922128372295 2:0.015625 15:0.0078125 24:0.0078125 25:0.0859375 37:0.015625 43:0.0078125 49:0.2734375 52:0.0078125 54:0.3828125 55:0.1015625 56:0.015625 59:0.0078125 63:0.0078125 64:0.0078125 67:0.0078125 72:0.0078125 75:0.0078125 79:0.0078125 82:0.0078125 97:0.015625 
-50 2:0.11111111 5:0.063492063 10:0.015873016 24:0.015873016 37:0.34920635 53:0.15873016 55:0.047619048 75:0.015873016 81:0.047619048 97:0.17460317 
-50 2:0.042857143 5:0.014285714 17:0.028571429 24:0.014285714 29:0.014285714 34:0.014285714 35:0.014285714 37:0.32857143 49:0.014285714 53:0.17142857 55:0.085714286 59:0.042857143 70:0.028571429 75:0.014285714 81:0.12857143 97:0.042857143 
-8.380538788826407 2:0.01980198 5:0.01980198 6:0.0099009901 12:0.0099009901 15:0.02970297 24:0.13861386 35:0.0099009901 37:0.28712871 45:0.0099009901 53:0.11881188 54:0.089108911 55:0.079207921 81:0.03960396 82:0.03960396 86:0.01980198 97:0.069306931 100:0.0099009901 
-50 2:0.027027027 5:0.027027027 14:0.027027027 17:0.040540541 24:0.013513514 25:0.013513514 27:0.013513514 37:0.12162162 47:0.013513514 49:0.067567568 50:0.040540541 53:0.12162162 54:0.027027027 55:0.17567568 81:0.12162162 88:0.054054054 93:0.040540541 97:0.054054054 
