svm_type c_svc
kernel_type rbf
gamma 0.01
nr_class 2
total_sv 29
rho -0.108414
label 1 -1
nr_sv 14 15
SV
50 2:0.25641026 39:0.051282051 49:0.30769231 54:0.15384615 61:0.051282051 68:0.1025641 90:0.025641026 94:0.025641026 100:0.025641026 
50 2:0.1875 18:0.09375 35:0.03125 37:0.03125 43:0.03125 49:0.3125 54:0.03125 70:0.03125 84:0.03125 92:0.21875 
50 2:0.39393939 4:0.03030303 8:0.015151515 17:0.12121212 37:0.090909091 43:0.10606061 54:0.015151515 55:0.03030303 56:0.015151515 61:0.03030303 68:0.015151515 81:0.10606061 90:0.015151515 93:0.015151515 
50 2:0.20930233 5:0.046511628 9:0.20930233 37:0.023255814 44:0.023255814 45:0.023255814 49:0.18604651 53:0.023255814 55:0.13953488 88:0.023255814 89:0.023255814 97:0.069767442 
50 2:0.076923077 7:0.051282051 18:0.076923077 49:0.41025641 55:0.051282051 61:0.12820513 68:0.1025641 70:0.076923077 85:0.025641026 
50 2:0.26 5:0.02 29:0.1 35:0.04 49:0.02 52:0.2 53:0.02 55:0.34 
50 2:0.043478261 23:0.23913043 37:0.02173913 49:0.5 54:0.02173913 70:0.02173913 94:0.15217391 
50 2:0.43548387 3:0.11290323 17:0.016129032 37:0.048387097 42:0.12903226 49:0.032258065 53:0.048387097 54:0.032258065 55:0.048387097 64:0.016129032 81:0.064516129 100:0.016129032 
50 2:0.065217391 8:0.043478261 14:0.043478261 23:0.10869565 35:0.02173913 38:0.10869565 49:0.086956522 55:0.45652174 84:0.043478261 95:0.02173913 
50 2:0.33333333 10:0.041666667 11:0.020833333 12:0.14583333 39:0.083333333 40:0.041666667 49:0.125 54:0.1875 78:0.020833333 
50 2:0.048780488 14:0.024390244 24:0.024390244 28:0.024390244 37:0.41463415 41:0.024390244 46:0.024390244 49:0.048780488 54:0.024390244 55:0.048780488 62:0.073170732 65:0.048780488 91:0.14634146 93:0.024390244 
50 2:0.065217391 7:0.02173913 12:0.02173913 26:0.086956522 29:0.02173913 37:0.02173913 38:0.065217391 46:0.02173913 54:0.02173913 55:0.39130435 65:0.02173913 79:0.02173913 85:0.02173913 90:0.15217391 93:0.043478261 
50 2:0.20588235 12:0.14705882 13:0.26470588 34:0.088235294 40:0.058823529 49:0.029411765 55:0.17647059 80:0.029411765 
50 2:0.41891892 17:0.16216216 30:0.013513514 37:0.067567568 45:0.013513514 54:0.013513514 55:0.027027027 57:0.054054054 63:0.013513514 69:0.040540541 72:0.013513514 77:0.12162162 81:0.027027027 95:0.013513514 
-50 1:0.022222222 2:0.088888889 17:0.066666667 25:0.022222222 34:0.044444444 36:0.022222222 39:0.15555556 40:0.044444444 60:0.33333333 71:0.11111111 80:0.066666667 98:0.022222222 
-29.75294203640085 1:0.093023256 2:0.046511628 17:0.046511628 33:0.046511628 60:0.34883721 66:0.023255814 71:0.11627907 80:0.069767442 82:0.18604651 95:0.023255814 
-50 1:0.033898305 2:0.033898305 13:0.016949153 15:0.016949153 16:0.050847458 17:0.016949153 31:0.10169492 33:0.016949153 36:0.033898305 60:0.06779661 69:0.06779661 71:0.16949153 72:0.016949153 80:0.13559322 82:0.11864407 85:0.050847458 87:0.033898305 95:0.016949153 
-50 2:0.066666667 5:0.066666667 12:0.066666667 17:0.033333333 36:0.36666667 37:0.1 39:0.066666667 60:0.066666667 71:0.066666667 80:0.033333333 81:0.066666667 
-50 2:0.058823529 11:0.029411765 12:0.029411765 17:0.058823529 39:0.41176471 50:0.14705882 60:0.20588235 87:0.058823529 
-50 1:0.014705882 2:0.029411765 3:0.014705882 4:0.058823529 8:0.029411765 9:0.058823529 17:0.029411765 20:0.029411765 25:0.058823529 29:0.014705882 32:0.058823529 35:0.014705882 36:0.014705882 37:0.029411765 40:0.014705882 41:0.014705882 45:0.029411765 50:0.029411765 51:0.014705882 54:0.029411765 56:0.029411765 67:0.058823529 70:0.029411765 71:0.014705882 76:0.014705882 79:0.014705882 80:0.029411765 84:0.044117647 86:0.029411765 87:0.029411765 88:0.014705882 97:0.014705882 98:0.029411765 99:0.058823529 
-50 2:0.066666667 12:0.066666667 22:0.11111111 37:0.022222222 39:0.33333333 47:0.022222222 60:0.17777778 74:0.022222222 79:0.15555556 87:0.022222222 
-50 2:0.058823529 6:0.11764706 17:0.029411765 19:0.26470588 32:0.029411765 33:0.17647059 36:0.029411765 50:0.029411765 63:0.058823529 70:0.029411765 71:0.029411765 82:0.088235294 83:0.029411765 87:0.029411765 
-20.24705796359915 2:0.041666667 17:0.0625 18:0.020833333 36:0.29166667 37:0.020833333 55:0.020833333 60:0.020833333 81:0.47916667 87:0.041666667 
-50 1:0.11764706 2:0.058823529 10:0.029411765 14:0.029411765 17:0.058823529 36:0.17647059 37:0.058823529 55:0.029411765 60:0.029411765 81:0.26470588 87:0.058823529 98:0.088235294 
-50 1:0.023809524 2:0.047619048 6:0.023809524 10:0.023809524 11:0.071428571 14:0.047619048 17:0.023809524 18:0.047619048 21:0.19047619 34:0.023809524 46:0.047619048 71:0.047619048 80:0.023809524 81:0.14285714 87:0.047619048 97:0.095238095 100:0.071428571 
-50 1:0.019607843 2:0.039215686 5:0.039215686 6:0.019607843 9:0.039215686 11:0.019607843 16:0.058823529 17:0.019607843 19:0.019607843 27:0.019607843 28:0.019607843 32:0.019607843 36:0.078431373 39:0.019607843 40:0.019607843 43:0.019607843 46:0.039215686 50:0.019607843 51:0.078431373 60:0.058823529 67:0.019607843 71:0.11764706 80:0.098039216 87:0.058823529 88:0.019607843 89:0.019607843 
-50 1:0.051724138 2:0.034482759 3:0.017241379 17:0.068965517 25:0.034482759 26:0.017241379 28:0.017241379 34:0.017241379 35:0.017241379 36:0.051724138 39:0.017241379 44:0.034482759 46:0.051724138 47:0.034482759 48:0.034482759 51:0.034482759 53:0.017241379 59:0.017241379 60:0.017241379 65:0.034482759 66:0.017241379 68:0.017241379 71:0.051724138 80:0.10344828 81:0.12068966 83:0.017241379 84:0.017241379 98:0.034482759 
-50 2:0.037735849 5:0.1509434 12:0.018867925 17:0.018867925 24:0.018867925 30:0.075471698 36:0.075471698 37:0.037735849 39:0.018867925 49:0.018867925 50:0.018867925 51:0.32075472 60:0.037735849 71:0.018867925 73:0.037735849 80:0.018867925 81:0.018867925 87:0.018867925 88:0.037735849 
-50 2:0.058823529 5:0.20588235 17:0.029411765 36:0.26470588 60:0.058823529 71:0.029411765 76:0.14705882 87:0.11764706 97:0.088235294 
