svm_type c_svc
kernel_type rbf
gamma 0.01
nr_class 2
total_sv 29
rho 0.0295232
label 1 -1
nr_sv 14 15
SV
50 2:0.25641026 39:0.051282051 49:0.30769231 54:0.15384615 61:0.051282051 68:0.1025641 90:0.025641026 94:0.025641026 100:0.025641026 
50 2:0.1875 18:0.09375 35:0.03125 37:0.03125 43:0.03125 49:0.3125 54:0.03125 70:0.03125 84:0.03125 92:0.21875 
50 2:0.39393939 4:0.03030303 8:0.015151515 17:0.12121212 37:0.090909091 43:0.10606061 54:0.015151515 55:0.03030303 56:0.015151515 61:0.03030303 68:0.015151515 81:0.10606061 90:0.015151515 93:0.015151515 
50 2:0.20930233 5:0.046511628 9:0.20930233 37:0.023255814 44:0.023255814 45:0.023255814 49:0.18604651 53:0.023255814 55:0.13953488 88:0.023255814 89:0.023255814 97:0.069767442 
50 2:0.076923077 7:0.051282051 18:0.076923077 49:0.41025641 55:0.051282051 61:0.12820513 68:0.1025641 70:0.076923077 85:0.025641026 
50 2:0.26 5:0.02 29:0.1 35:0.04 49:0.02 52:0.2 53:0.02 55:0.34 
50 2:0.043478261 23:0.23913043 37:0.02173913 49:0.5 54:0.02173913 70:0.02173913 94:0.15217391 
50 2:0.43548387 3:0.11290323 17:0.016129032 37:0.048387097 42:0.12903226 49:0.032258065 53:0.048387097 54:0.032258065 55:0.048387097 64:0.016129032 81:0.064516129 100:0.016129032 
50 2:0.065217391 8:0.043478261 14:0.043478261 23:0.10869565 35:0.02173913 38:0.10869565 49:0.086956522 55:0.45652174 84:0.043478261 95:0.02173913 
50 2:0.33333333 10:0.041666667 11:0.020833333 12:0.14583333 39:0.083333333 40:0.041666667 49:0.125 54:0.1875 78:0.020833333 
50 2:0.048780488 14:0.024390244 24:0.024390244 28:0.024390244 37:0.41463415 41:0.024390244 46:0.024390244 49:0.048780488 54:0.024390244 55:0.048780488 62:0.073170732 65:0.048780488 91:0.14634146 93:0.024390244 
50 2:0.065217391 7:0.02173913 12:0.02173913 26:0.086956522 29:0.02173913 37:0.02173913 38:0.065217391 46:0.02173913 54:0.02173913 55:0.39130435 65:0.02173913 79:0.02173913 85:0.02173913 90:0.15217391 93:0.043478261 
50 2:0.20588235 12:0.14705882 13:0.26470588 34:0.088235294 40:0.058823529 49:0.029411765 55:0.17647059 80:0.029411765 
50 2:0.41891892 17:0.16216216 30:0.013513514 37:0.067567568 45:0.013513514 54:0.013513514 55:0.027027027 57:0.054054054 63:0.013513514 69:0.040540541 72:0.013513514 77:0.12162162 81:0.027027027 95:0.013513514 
-47.39764819803749 2:0.046511628 5:0.27906977 20:0.23255814 51:0.023255814 80:0.20930233 87:0.20930233 
-50 2:0.052631579 5:0.31578947 17:0.026315789 32:0.31578947 51:0.052631579 53:0.026315789 80:0.052631579 87:0.15789474 
-50 2:0.024390244 4:0.024390244 5:0.073170732 9:0.012195122 17:0.012195122 20:0.48780488 37:0.097560976 51:0.012195122 60:0.048780488 66:0.012195122 71:0.036585366 80:0.073170732 81:0.012195122 87:0.048780488 97:0.024390244 
-50 2:0.043478261 5:0.10144928 9:0.014492754 22:0.014492754 27:0.014492754 36:0.014492754 37:0.014492754 44:0.014492754 50:0.1884058 51:0.014492754 53:0.072463768 55:0.10144928 56:0.014492754 81:0.028985507 86:0.028985507 87:0.043478261 88:0.043478261 89:0.086956522 97:0.14492754 
-50 2:0.060606061 5:0.075757576 6:0.060606061 9:0.015151515 12:0.015151515 14:0.015151515 24:0.015151515 28:0.13636364 33:0.015151515 35:0.015151515 37:0.10606061 47:0.045454545 50:0.03030303 54:0.13636364 56:0.015151515 64:0.015151515 66:0.015151515 67:0.015151515 72:0.015151515 81:0.015151515 84:0.015151515 86:0.015151515 88:0.015151515 93:0.015151515 97:0.090909091 100:0.015151515 
-50 2:0.26829268 5:0.048780488 20:0.048780488 22:0.024390244 50:0.36585366 51:0.048780488 60:0.024390244 74:0.048780488 80:0.024390244 87:0.097560976 
-50 2:0.033333333 4:0.2 20:0.083333333 33:0.033333333 50:0.11666667 51:0.016666667 54:0.066666667 56:0.033333333 65:0.25 97:0.16666667 
-50 2:0.028985507 4:0.014492754 5:0.14492754 14:0.028985507 17:0.028985507 27:0.028985507 37:0.028985507 50:0.086956522 51:0.1884058 54:0.072463768 58:0.014492754 60:0.014492754 64:0.028985507 70:0.014492754 71:0.014492754 81:0.014492754 87:0.14492754 97:0.10144928 
-50 2:0.034482759 5:0.017241379 24:0.051724138 29:0.27586207 33:0.034482759 47:0.034482759 50:0.12068966 54:0.051724138 56:0.017241379 58:0.017241379 60:0.034482759 71:0.017241379 87:0.051724138 89:0.034482759 97:0.20689655 
-11.51064878983589 2:0.041666667 32:0.5625 50:0.25 54:0.020833333 58:0.020833333 97:0.10416667 
-50 2:0.058823529 27:0.088235294 50:0.14705882 54:0.029411765 88:0.38235294 96:0.029411765 97:0.26470588 
-50 2:0.085714286 5:0.028571429 7:0.17142857 17:0.028571429 37:0.028571429 50:0.2 81:0.085714286 87:0.085714286 88:0.028571429 89:0.028571429 97:0.22857143 
-50 2:0.041666667 14:0.020833333 15:0.020833333 34:0.020833333 36:0.020833333 39:0.27083333 50:0.20833333 59:0.083333333 60:0.0625 64:0.041666667 80:0.020833333 97:0.1875 
-41.09170301212663 2:0.064516129 4:0.25806452 27:0.032258065 50:0.064516129 54:0.032258065 74:0.064516129 86:0.032258065 87:0.064516129 96:0.032258065 97:0.35483871 
-50 2:0.060606061 5:0.27272727 17:0.33333333 50:0.090909091 81:0.090909091 87:0.15151515 
