svm_type c_svc
kernel_type rbf
gamma 0.01
nr_class 2
total_sv 29
rho -0.146435
label 1 -1
nr_sv 14 15
SV
50 2:0.25641026 39:0.051282051 49:0.30769231 54:0.15384615 61:0.051282051 68:0.1025641 90:0.025641026 94:0.025641026 100:0.025641026 
50 2:0.1875 18:0.09375 35:0.03125 37:0.03125 43:0.03125 49:0.3125 54:0.03125 70:0.03125 84:0.03125 92:0.21875 
50 2:0.39393939 4:0.03030303 8:0.015151515 17:0.12121212 37:0.090909091 43:0.10606061 54:0.015151515 55:0.03030303 56:0.015151515 61:0.03030303 68:0.015151515 81:0.10606061 90:0.015151515 93:0.015151515 
50 2:0.20930233 5:0.046511628 9:0.20930233 37:0.023255814 44:0.023255814 45:0.023255814 49:0.18604651 53:0.023255814 55:0.13953488 88:0.023255814 89:0.023255814 97:0.069767442 
50 2:0.076923077 7:0.051282051 18:0.076923077 49:0.41025641 55:0.051282051 61:0.12820513 68:0.1025641 70:0.076923077 85:0.025641026 
50 2:0.26 5:0.02 29:0.1 35:0.04 49:0.02 52:0.2 53:0.02 55:0.34 
50 2:0.043478261 23:0.23913043 37:0.02173913 49:0.5 54:0.02173913 70:0.02173913 94:0.15217391 
48.076420770869 2:0.43548387 3:0.11290323 17:0.016129032 37:0.048387097 42:0.12903226 49:0.032258065 53:0.048387097 54:0.032258065 55:0.048387097 64:0.016129032 81:0.064516129 100:0.016129032 
50 2:0.065217391 8:0.043478261 14:0.043478261 23:0.10869565 35:0.02173913 38:0.10869565 49:0.086956522 55:0.45652174 84:0.043478261 95:0.02173913 
50 2:0.33333333 10:0.041666667 11:0.020833333 12:0.14583333 39:0.083333333 40:0.041666667 49:0.125 54:0.1875 78:0.020833333 
50 2:0.048780488 14:0.024390244 24:0.024390244 28:0.024390244 37:0.41463415 41:0.024390244 46:0.024390244 49:0.048780488 54:0.024390244 55:0.048780488 62:0.073170732 65:0.048780488 91:0.14634146 93:0.024390244 
50 2:0.065217391 7:0.02173913 12:0.02173913 26:0.086956522 29:0.02173913 37:0.02173913 38:0.065217391 46:0.02173913 54:0.02173913 55:0.39130435 65:0.02173913 79:0.02173913 85:0.02173913 90:0.15217391 93:0.043478261 
50 2:0.20588235 12:0.14705882 13:0.26470588 34:0.088235294 40:0.058823529 49:0.029411765 55:0.17647059 80:0.029411765 
50 2:0.41891892 17:0.16216216 30:0.013513514 37:0.067567568 45:0.013513514 54:0.013513514 55:0.027027027 57:0.054054054 63:0.013513514 69:0.040540541 72:0.013513514 77:0.12162162 81:0.027027027 95:0.013513514 
-50 2:0.097560976 17:0.46341463 53:0.19512195 81:0.24390244 
-50 2:0.038461538 17:0.48076923 53:0.42307692 81:0.057692308 
-50 2:0.057971014 35:0.043478261 37:0.028985507 49:0.46376812 54:0.17391304 55:0.23188406 
-50 2:0.02173913 5:0.010869565 6:0.010869565 14:0.010869565 15:0.065217391 24:0.23913043 26:0.02173913 37:0.13043478 49:0.054347826 53:0.076086957 54:0.086956522 55:0.13043478 64:0.02173913 69:0.02173913 81:0.043478261 93:0.010869565 97:0.02173913 100:0.02173913 
-50 2:0.023529412 24:0.28235294 26:0.047058824 37:0.10588235 48:0.035294118 49:0.10588235 53:0.070588235 54:0.15294118 55:0.10588235 59:0.035294118 81:0.011764706 88:0.011764706 93:0.011764706 
-50 2:0.056603774 24:0.018867925 37:0.30188679 53:0.11320755 54:0.018867925 55:0.16981132 81:0.32075472 
-50 2:0.016528926 7:0.0082644628 8:0.016528926 24:0.0082644628 26:0.0082644628 35:0.0082644628 37:0.11570248 38:0.024793388 46:0.0082644628 47:0.016528926 48:0.0082644628 49:0.082644628 53:0.016528926 54:0.44628099 55:0.11570248 88:0.0082644628 97:0.090909091 
-45.02234567542019 2:0.025974026 5:0.012987013 37:0.33766234 53:0.27272727 54:0.064935065 55:0.16883117 81:0.11688312 
-50 2:0.015625 15:0.0078125 24:0.0078125 25:0.0859375 37:0.015625 43:0.0078125 49:0.2734375 52:0.0078125 54:0.3828125 55:0.1015625 56:0.015625 59:0.0078125 63:0.0078125 64:0.0078125 67:0.0078125 72:0.0078125 75:0.0078125 79:0.0078125 82:0.0078125 97:0.015625 
-50 2:0.11111111 5:0.063492063 10:0.015873016 24:0.015873016 37:0.34920635 53:0.15873016 55:0.047619048 75:0.015873016 81:0.047619048 97:0.17460317 
-50 2:0.042857143 5:0.014285714 17:0.028571429 24:0.014285714 29:0.014285714 34:0.014285714 35:0.014285714 37:0.32857143 49:0.014285714 53:0.17142857 55:0.085714286 59:0.042857143 70:0.028571429 75:0.014285714 81:0.12857143 97:0.042857143 
-34.65391508627546 2:0.045977011 5:0.034482759 17:0.022988506 37:0.36781609 53:0.17241379 54:0.034482759 55:0.034482759 75:0.011494253 81:0.24137931 97:0.034482759 
-18.40016000917335 2:0.041666667 24:0.16666667 37:0.39583333 53:0.20833333 54:0.0625 55:0.083333333 81:0.020833333 97:0.020833333 
-50 2:0.01980198 5:0.01980198 6:0.0099009901 12:0.0099009901 15:0.02970297 24:0.13861386 35:0.0099009901 37:0.28712871 45:0.0099009901 53:0.11881188 54:0.089108911 55:0.079207921 81:0.03960396 82:0.03960396 86:0.01980198 97:0.069306931 100:0.0099009901 
-50 2:0.027027027 5:0.027027027 14:0.027027027 17:0.040540541 24:0.013513514 25:0.013513514 27:0.013513514 37:0.12162162 47:0.013513514 49:0.067567568 50:0.040540541 53:0.12162162 54:0.027027027 55:0.17567568 81:0.12162162 88:0.054054054 93:0.040540541 97:0.054054054 
