svm_type c_svc
kernel_type rbf
gamma 0.01
nr_class 2
total_sv 34
rho 0.196376
label 1 -1
nr_sv 17 17
SV
50 2:0.04 5:0.06 33:0.02 36:0.02 50:0.06 51:0.08 60:0.36 66:0.02 71:0.04 80:0.06 82:0.22 87:0.02 
38.37172422769871 2:0.045454545 25:0.022727273 32:0.022727273 36:0.045454545 39:0.25 51:0.022727273 56:0.022727273 59:0.022727273 60:0.29545455 71:0.13636364 80:0.11363636 
50 1:0.022222222 2:0.088888889 17:0.066666667 25:0.022222222 34:0.044444444 36:0.022222222 39:0.15555556 40:0.044444444 60:0.33333333 71:0.11111111 80:0.066666667 98:0.022222222 
50 1:0.093023256 2:0.046511628 17:0.046511628 33:0.046511628 60:0.34883721 66:0.023255814 71:0.11627907 80:0.069767442 82:0.18604651 95:0.023255814 
50 1:0.033898305 2:0.033898305 13:0.016949153 15:0.016949153 16:0.050847458 17:0.016949153 31:0.10169492 33:0.016949153 36:0.033898305 60:0.06779661 69:0.06779661 71:0.16949153 72:0.016949153 80:0.13559322 82:0.11864407 85:0.050847458 87:0.033898305 95:0.016949153 
50 2:0.066666667 5:0.066666667 12:0.066666667 17:0.033333333 36:0.36666667 37:0.1 39:0.066666667 60:0.066666667 71:0.066666667 80:0.033333333 81:0.066666667 
50 2:0.058823529 11:0.029411765 12:0.029411765 17:0.058823529 39:0.41176471 50:0.14705882 60:0.20588235 87:0.058823529 
50 1:0.014705882 2:0.029411765 3:0.014705882 4:0.058823529 8:0.029411765 9:0.058823529 17:0.029411765 20:0.029411765 25:0.058823529 29:0.014705882 32:0.058823529 35:0.014705882 36:0.014705882 37:0.029411765 40:0.014705882 41:0.014705882 45:0.029411765 50:0.029411765 51:0.014705882 54:0.029411765 56:0.029411765 67:0.058823529 70:0.029411765 71:0.014705882 76:0.014705882 79:0.014705882 80:0.029411765 84:0.044117647 86:0.029411765 87:0.029411765 88:0.014705882 97:0.014705882 98:0.029411765 99:0.058823529 
50 2:0.066666667 12:0.066666667 22:0.11111111 37:0.022222222 39:0.33333333 47:0.022222222 60:0.17777778 74:0.022222222 79:0.15555556 87:0.022222222 
50 2:0.058823529 6:0.11764706 17:0.029411765 19:0.26470588 32:0.029411765 33:0.17647059 36:0.029411765 50:0.029411765 63:0.058823529 70:0.029411765 71:0.029411765 82:0.088235294 83:0.029411765 87:0.029411765 
50 2:0.041666667 17:0.0625 18:0.020833333 36:0.29166667 37:0.020833333 55:0.020833333 60:0.020833333 81:0.47916667 87:0.041666667 
50 1:0.11764706 2:0.058823529 10:0.029411765 14:0.029411765 17:0.058823529 36:0.17647059 37:0.058823529 55:0.029411765 60:0.029411765 81:0.26470588 87:0.058823529 98:0.088235294 
50 1:0.023809524 2:0.047619048 6:0.023809524 10:0.023809524 11:0.071428571 14:0.047619048 17:0.023809524 18:0.047619048 21:0.19047619 34:0.023809524 46:0.047619048 71:0.047619048 80:0.023809524 81:0.14285714 87:0.047619048 97:0.095238095 100:0.071428571 
50 1:0.019607843 2:0.039215686 5:0.039215686 6:0.019607843 9:0.039215686 11:0.019607843 16:0.058823529 17:0.019607843 19:0.019607843 27:0.019607843 28:0.019607843 32:0.019607843 36:0.078431373 39:0.019607843 40:0.019607843 43:0.019607843 46:0.039215686 50:0.019607843 51:0.078431373 60:0.058823529 67:0.019607843 71:0.11764706 80:0.098039216 87:0.058823529 88:0.019607843 89:0.019607843 
50 1:0.051724138 2:0.034482759 3:0.017241379 17:0.068965517 25:0.034482759 26:0.017241379 28:0.017241379 34:0.017241379 35:0.017241379 36:0.051724138 39:0.017241379 44:0.034482759 46:0.051724138 47:0.034482759 48:0.034482759 51:0.034482759 53:0.017241379 59:0.017241379 60:0.017241379 65:0.034482759 66:0.017241379 68:0.017241379 71:0.051724138 80:0.10344828 81:0.12068966 83:0.017241379 84:0.017241379 98:0.034482759 
50 2:0.037735849 5:0.1509434 12:0.018867925 17:0.018867925 24:0.018867925 30:0.075471698 36:0.075471698 37:0.037735849 39:0.018867925 49:0.018867925 50:0.018867925 51:0.32075472 60:0.037735849 71:0.018867925 73:0.037735849 80:0.018867925 81:0.018867925 87:0.018867925 88:0.037735849 
50 2:0.058823529 5:0.20588235 17:0.029411765 36:0.26470588 60:0.058823529 71:0.029411765 76:0.14705882 87:0.11764706 97:0.088235294 
-50 2:0.046511628 5:0.27906977 20:0.23255814 51:0.023255814 80:0.20930233 87:0.20930233 
-50 2:0.052631579 5:0.31578947 17:0.026315789 32:0.31578947 51:0.052631579 53:0.026315789 80:0.052631579 87:0.15789474 
-50 2:0.024390244 4:0.024390244 5:0.073170732 9:0.012195122 17:0.012195122 20:0.48780488 37:0.097560976 51:0.012195122 60:0.048780488 66:0.012195122 71:0.036585366 80:0.073170732 81:0.012195122 87:0.048780488 97:0.024390244 
-50 2:0.043478261 5:0.10144928 9:0.014492754 22:0.014492754 27:0.014492754 36:0.014492754 37:0.014492754 44:0.014492754 50:0.1884058 51:0.014492754 53:0.072463768 55:0.10144928 56:0.014492754 81:0.028985507 86:0.028985507 87:0.043478261 88:0.043478261 89:0.086956522 97:0.14492754 
-50 2:0.060606061 5:0.075757576 6:0.060606061 9:0.015151515 12:0.015151515 14:0.015151515 24:0.015151515 28:0.13636364 33:0.015151515 35:0.015151515 37:0.10606061 47:0.045454545 50:0.03030303 54:0.13636364 56:0.015151515 64:0.015151515 66:0.015151515 67:0.015151515 72:0.015151515 81:0.015151515 84:0.015151515 86:0.015151515 88:0.015151515 93:0.015151515 97:0.090909091 100:0.015151515 
-50 2:0.26829268 5:0.048780488 20:0.048780488 22:0.024390244 50:0.36585366 51:0.048780488 60:0.024390244 74:0.048780488 80:0.024390244 87:0.097560976 
-50 2:0.033333333 4:0.2 20:0.083333333 33:0.033333333 50:0.11666667 51:0.016666667 54:0.066666667 56:0.033333333 65:0.25 97:0.16666667 
-50 2:0.028985507 4:0.014492754 5:0.14492754 14:0.028985507 17:0.028985507 27:0.028985507 37:0.028985507 50:0.086956522 51:0.1884058 54:0.072463768 58:0.014492754 60:0.014492754 64:0.028985507 70:0.014492754 71:0.014492754 81:0.014492754 87:0.14492754 97:0.10144928 
-50 2:0.034482759 5:0.017241379 24:0.051724138 29:0.27586207 33:0.034482759 47:0.034482759 50:0.12068966 54:0.051724138 56:0.017241379 58:0.017241379 60:0.034482759 71:0.017241379 87:0.051724138 89:0.034482759 97:0.20689655 
-38.37172422769871 2:0.041666667 32:0.5625 50:0.25 54:0.020833333 58:0.020833333 97:0.10416667 
-50 2:0.058823529 27:0.088235294 50:0.14705882 54:0.029411765 88:0.38235294 96:0.029411765 97:0.26470588 
-50 2:0.085714286 5:0.028571429 7:0.17142857 17:0.028571429 37:0.028571429 50:0.2 81:0.085714286 87:0.085714286 88:0.028571429 89:0.028571429 97:0.22857143 
-50 2:0.041666667 14:0.020833333 15:0.020833333 34:0.020833333 36:0.020833333 39:0.27083333 50:0.20833333 59:0.083333333 60:0.0625 64:0.041666667 80:0.020833333 97:0.1875 
-50 2:0.048387097 4:0.064516129 5:0.048387097 9:0.016129032 29:0.048387097 33:0.016129032 37:0.032258065 39:0.016129032 43:0.032258065 50:0.19354839 71:0.016129032 74:0.048387097 75:0.016129032 80:0.016129032 87:0.032258065 88:0.032258065 89:0.032258065 95:0.048387097 97:0.24193548 
-50 2:0.032786885 5:0.06557377 9:0.032786885 14:0.016393443 17:0.081967213 20:0.016393443 50:0.27868852 56:0.016393443 59:0.049180328 60:0.06557377 64:0.032786885 70:0.032786885 71:0.098360656 74:0.016393443 80:0.016393443 87:0.016393443 97:0.13114754 
-50 2:0.064516129 4:0.25806452 27:0.032258065 50:0.064516129 54:0.032258065 74:0.064516129 86:0.032258065 87:0.064516129 96:0.032258065 97:0.35483871 
-50 2:0.060606061 5:0.27272727 17:0.33333333 50:0.090909091 81:0.090909091 87:0.15151515 
