svm_type c_svc
kernel_type rbf
gamma 0.01
nr_class 2
total_sv 28
rho 0.0396286
label 1 -1
nr_sv 14 14
SV
42.70253787561823 1:0.093023256 2:0.046511628 17:0.046511628 33:0.046511628 60:0.34883721 66:0.023255814 71:0.11627907 80:0.069767442 82:0.18604651 95:0.023255814 
50 1:0.033898305 2:0.033898305 13:0.016949153 15:0.016949153 16:0.050847458 17:0.016949153 31:0.10169492 33:0.016949153 36:0.033898305 60:0.06779661 69:0.06779661 71:0.16949153 72:0.016949153 80:0.13559322 82:0.11864407 85:0.050847458 87:0.033898305 95:0.016949153 
50 2:0.066666667 5:0.066666667 12:0.066666667 17:0.033333333 36:0.36666667 37:0.1 39:0.066666667 60:0.066666667 71:0.066666667 80:0.033333333 81:0.066666667 
32.71537947352786 2:0.058823529 11:0.029411765 12:0.029411765 17:0.058823529 39:0.41176471 50:0.14705882 60:0.20588235 87:0.058823529 
50 1:0.014705882 2:0.029411765 3:0.014705882 4:0.058823529 8:0.029411765 9:0.058823529 17:0.029411765 20:0.029411765 25:0.058823529 29:0.014705882 32:0.058823529 35:0.014705882 36:0.014705882 37:0.029411765 40:0.014705882 41:0.014705882 45:0.029411765 50:0.029411765 51:0.014705882 54:0.029411765 56:0.029411765 67:0.058823529 70:0.029411765 71:0.014705882 76:0.014705882 79:0.014705882 80:0.029411765 84:0.044117647 86:0.029411765 87:0.029411765 88:0.014705882 97:0.014705882 98:0.029411765 99:0.058823529 
50 2:0.066666667 12:0.066666667 22:0.11111111 37:0.022222222 39:0.33333333 47:0.022222222 60:0.17777778 74:0.022222222 79:0.15555556 87:0.022222222 
50 2:0.058823529 6:0.11764706 17:0.029411765 19:0.26470588 32:0.029411765 33:0.17647059 36:0.029411765 50:0.029411765 63:0.058823529 70:0.029411765 71:0.029411765 82:0.088235294 83:0.029411765 87:0.029411765 
50 2:0.041666667 17:0.0625 18:0.020833333 36:0.29166667 37:0.020833333 55:0.020833333 60:0.020833333 81:0.47916667 87:0.041666667 
50 1:0.11764706 2:0.058823529 10:0.029411765 14:0.029411765 17:0.058823529 36:0.17647059 37:0.058823529 55:0.029411765 60:0.029411765 81:0.26470588 87:0.058823529 98:0.088235294 
50 1:0.023809524 2:0.047619048 6:0.023809524 10:0.023809524 11:0.071428571 14:0.047619048 17:0.023809524 18:0.047619048 21:0.19047619 34:0.023809524 46:0.047619048 71:0.047619048 80:0.023809524 81:0.14285714 87:0.047619048 97:0.095238095 100:0.071428571 
50 1:0.019607843 2:0.039215686 5:0.039215686 6:0.019607843 9:0.039215686 11:0.019607843 16:0.058823529 17:0.019607843 19:0.019607843 27:0.019607843 28:0.019607843 32:0.019607843 36:0.078431373 39:0.019607843 40:0.019607843 43:0.019607843 46:0.039215686 50:0.019607843 51:0.078431373 60:0.058823529 67:0.019607843 71:0.11764706 80:0.098039216 87:0.058823529 88:0.019607843 89:0.019607843 
50 1:0.051724138 2:0.034482759 3:0.017241379 17:0.068965517 25:0.034482759 26:0.017241379 28:0.017241379 34:0.017241379 35:0.017241379 36:0.051724138 39:0.017241379 44:0.034482759 46:0.051724138 47:0.034482759 48:0.034482759 51:0.034482759 53:0.017241379 59:0.017241379 60:0.017241379 65:0.034482759 66:0.017241379 68:0.017241379 71:0.051724138 80:0.10344828 81:0.12068966 83:0.017241379 84:0.017241379 98:0.034482759 
50 2:0.037735849 5:0.1509434 12:0.018867925 17:0.018867925 24:0.018867925 30:0.075471698 36:0.075471698 37:0.037735849 39:0.018867925 49:0.018867925 50:0.018867925 51:0.32075472 60:0.037735849 71:0.018867925 73:0.037735849 80:0.018867925 81:0.018867925 87:0.018867925 88:0.037735849 
44.0598634412919 2:0.058823529 5:0.20588235 17:0.029411765 36:0.26470588 60:0.058823529 71:0.029411765 76:0.14705882 87:0.11764706 97:0.088235294 
-50 2:0.097560976 17:0.46341463 53:0.19512195 81:0.24390244 
-50 2:0.038461538 17:0.48076923 53:0.42307692 81:0.057692308 
-50 2:0.057971014 35:0.043478261 37:0.028985507 49:0.46376812 54:0.17391304 55:0.23188406 
-50 2:0.02173913 5:0.010869565 6:0.010869565 14:0.010869565 15:0.065217391 24:0.23913043 26:0.02173913 37:0.13043478 49:0.054347826 53:0.076086957 54:0.086956522 55:0.13043478 64:0.02173913 69:0.02173913 81:0.043478261 93:0.010869565 97:0.02173913 100:0.02173913 
-50 2:0.023529412 24:0.28235294 26:0.047058824 37:0.10588235 48:0.035294118 49:0.10588235 53:0.070588235 54:0.15294118 55:0.10588235 59:0.035294118 81:0.011764706 88:0.011764706 93:0.011764706 
-50 2:0.056603774 24:0.018867925 37:0.30188679 53:0.11320755 54:0.018867925 55:0.16981132 81:0.32075472 
-50 2:0.016528926 7:0.0082644628 8:0.016528926 24:0.0082644628 26:0.0082644628 35:0.0082644628 37:0.11570248 38:0.024793388 46:0.0082644628 47:0.016528926 48:0.0082644628 49:0.082644628 53:0.016528926 54:0.44628099 55:0.11570248 88:0.0082644628 97:0.090909091 
-19.47778079043799 2:0.025974026 5:0.012987013 37:0.33766234 53:0.27272727 54:0.064935065 55:0.16883117 81:0.11688312 
-50 2:0.015625 15:0.0078125 24:0.0078125 25:0.0859375 37:0.015625 43:0.0078125 49:0.2734375 52:0.0078125 54:0.3828125 55:0.1015625 56:0.015625 59:0.0078125 63:0.0078125 64:0.0078125 67:0.0078125 72:0.0078125 75:0.0078125 79:0.0078125 82:0.0078125 97:0.015625 
-50 2:0.11111111 5:0.063492063 10:0.015873016 24:0.015873016 37:0.34920635 53:0.15873016 55:0.047619048 75:0.015873016 81:0.047619048 97:0.17460317 
-50 2:0.042857143 5:0.014285714 17:0.028571429 24:0.014285714 29:0.014285714 34:0.014285714 35:0.014285714 37:0.32857143 49:0.014285714 53:0.17142857 55:0.085714286 59:0.042857143 70:0.028571429 75:0.014285714 81:0.12857143 97:0.042857143 
-50 2:0.045977011 5:0.034482759 17:0.022988506 37:0.36781609 53:0.17241379 54:0.034482759 55:0.034482759 75:0.011494253 81:0.24137931 97:0.034482759 
-50 2:0.01980198 5:0.01980198 6:0.0099009901 12:0.0099009901 15:0.02970297 24:0.13861386 35:0.0099009901 37:0.28712871 45:0.0099009901 53:0.11881188 54:0.089108911 55:0.079207921 81:0.03960396 82:0.03960396 86:0.01980198 97:0.069306931 100:0.0099009901 
-50 2:0.027027027 5:0.027027027 14:0.027027027 17:0.040540541 24:0.013513514 25:0.013513514 27:0.013513514 37:0.12162162 47:0.013513514 49:0.067567568 50:0.040540541 53:0.12162162 54:0.027027027 55:0.17567568 81:0.12162162 88:0.054054054 93:0.040540541 97:0.054054054 
