svm_type c_svc
kernel_type rbf
gamma 0.01
nr_class 2
total_sv 28
rho -0.0155516
label 1 -1
nr_sv 15 13
SV
18.98765946518522 2:0.046511628 5:0.27906977 20:0.23255814 51:0.023255814 80:0.20930233 87:0.20930233 
50 2:0.052631579 5:0.31578947 17:0.026315789 32:0.31578947 51:0.052631579 53:0.026315789 80:0.052631579 87:0.15789474 
50 2:0.024390244 4:0.024390244 5:0.073170732 9:0.012195122 17:0.012195122 20:0.48780488 37:0.097560976 51:0.012195122 60:0.048780488 66:0.012195122 71:0.036585366 80:0.073170732 81:0.012195122 87:0.048780488 97:0.024390244 
50 2:0.043478261 5:0.10144928 9:0.014492754 22:0.014492754 27:0.014492754 36:0.014492754 37:0.014492754 44:0.014492754 50:0.1884058 51:0.014492754 53:0.072463768 55:0.10144928 56:0.014492754 81:0.028985507 86:0.028985507 87:0.043478261 88:0.043478261 89:0.086956522 97:0.14492754 
50 2:0.060606061 5:0.075757576 6:0.060606061 9:0.015151515 12:0.015151515 14:0.015151515 24:0.015151515 28:0.13636364 33:0.015151515 35:0.015151515 37:0.10606061 47:0.045454545 50:0.03030303 54:0.13636364 56:0.015151515 64:0.015151515 66:0.015151515 67:0.015151515 72:0.015151515 81:0.015151515 84:0.015151515 86:0.015151515 88:0.015151515 93:0.015151515 97:0.090909091 100:0.015151515 
50 2:0.033333333 4:0.2 20:0.083333333 33:0.033333333 50:0.11666667 51:0.016666667 54:0.066666667 56:0.033333333 65:0.25 97:0.16666667 
50 2:0.028985507 4:0.014492754 5:0.14492754 14:0.028985507 17:0.028985507 27:0.028985507 37:0.028985507 50:0.086956522 51:0.1884058 54:0.072463768 58:0.014492754 60:0.014492754 64:0.028985507 70:0.014492754 71:0.014492754 81:0.014492754 87:0.14492754 97:0.10144928 
50 2:0.034482759 5:0.017241379 24:0.051724138 29:0.27586207 33:0.034482759 47:0.034482759 50:0.12068966 54:0.051724138 56:0.017241379 58:0.017241379 60:0.034482759 71:0.017241379 87:0.051724138 89:0.034482759 97:0.20689655 
3.15890014805764 2:0.041666667 32:0.5625 50:0.25 54:0.020833333 58:0.020833333 97:0.10416667 
46.95878131433233 2:0.058823529 27:0.088235294 50:0.14705882 54:0.029411765 88:0.38235294 96:0.029411765 97:0.26470588 
50 2:0.085714286 5:0.028571429 7:0.17142857 17:0.028571429 37:0.028571429 50:0.2 81:0.085714286 87:0.085714286 88:0.028571429 89:0.028571429 97:0.22857143 
50 2:0.041666667 14:0.020833333 15:0.020833333 34:0.020833333 36:0.020833333 39:0.27083333 50:0.20833333 59:0.083333333 60:0.0625 64:0.041666667 80:0.020833333 97:0.1875 
50 2:0.032786885 5:0.06557377 9:0.032786885 14:0.016393443 17:0.081967213 20:0.016393443 50:0.27868852 56:0.016393443 59:0.049180328 60:0.06557377 64:0.032786885 70:0.032786885 71:0.098360656 74:0.016393443 80:0.016393443 87:0.016393443 97:0.13114754 
30.89465907242479 2:0.064516129 4:0.25806452 27:0.032258065 50:0.064516129 54:0.032258065 74:0.064516129 86:0.032258065 87:0.064516129 96:0.032258065 97:0.35483871 
50 2:0.060606061 5:0.27272727 17:0.33333333 50:0.090909091 81:0.090909091 87:0.15151515 
-50 2:0.097560976 17:0.46341463 53:0.19512195 81:0.24390244 
-50 2:0.038461538 17:0.48076923 53:0.42307692 81:0.057692308 
-50 2:0.057971014 35:0.043478261 37:0.028985507 49:0.46376812 54:0.17391304 55:0.23188406 
-50 2:0.02173913 5:0.010869565 6:0.010869565 14:0.010869565 15:0.065217391 24:0.23913043 26:0.02173913 37:0.13043478 49:0.054347826 53:0.076086957 54:0.086956522 55:0.13043478 64:0.02173913 69:0.02173913 81:0.043478261 93:0.010869565 97:0.02173913 100:0.02173913 
-50 2:0.023529412 24:0.28235294 26:0.047058824 37:0.10588235 48:0.035294118 49:0.10588235 53:0.070588235 54:0.15294118 55:0.10588235 59:0.035294118 81:0.011764706 88:0.011764706 93:0.011764706 
-50 2:0.056603774 24:0.018867925 37:0.30188679 53:0.11320755 54:0.018867925 55:0.16981132 81:0.32075472 
-50 2:0.016528926 7:0.0082644628 8:0.016528926 24:0.0082644628 26:0.0082644628 35:0.0082644628 37:0.11570248 38:0.024793388 46:0.0082644628 47:0.016528926 48:0.0082644628 49:0.082644628 53:0.016528926 54:0.44628099 55:0.11570248 88:0.0082644628 97:0.090909091 
-50 2:0.015625 15:0.0078125 24:0.0078125 25:0.0859375 37:0.015625 43:0.0078125 49:0.2734375 52:0.0078125 54:0.3828125 55:0.1015625 56:0.015625 59:0.0078125 63:0.0078125 64:0.0078125 67:0.0078125 72:0.0078125 75:0.0078125 79:0.0078125 82:0.0078125 97:0.015625 
-50 2:0.11111111 5:0.063492063 10:0.015873016 24:0.015873016 37:0.34920635 53:0.15873016 55:0.047619048 75:0.015873016 81:0.047619048 97:0.17460317 
-50 2:0.042857143 5:0.014285714 17:0.028571429 24:0.014285714 29:0.014285714 34:0.014285714 35:0.014285714 37:0.32857143 49:0.014285714 53:0.17142857 55:0.085714286 59:0.042857143 70:0.028571429 75:0.014285714 81:0.12857143 97:0.042857143 
-50 2:0.045977011 5:0.034482759 17:0.022988506 37:0.36781609 53:0.17241379 54:0.034482759 55:0.034482759 75:0.011494253 81:0.24137931 97:0.034482759 
-50 2:0.01980198 5:0.01980198 6:0.0099009901 12:0.0099009901 15:0.02970297 24:0.13861386 35:0.0099009901 37:0.28712871 45:0.0099009901 53:0.11881188 54:0.089108911 55:0.079207921 81:0.03960396 82:0.03960396 86:0.01980198 97:0.069306931 100:0.0099009901 
-50 2:0.027027027 5:0.027027027 14:0.027027027 17:0.040540541 24:0.013513514 25:0.013513514 27:0.013513514 37:0.12162162 47:0.013513514 49:0.067567568 50:0.040540541 53:0.12162162 54:0.027027027 55:0.17567568 81:0.12162162 88:0.054054054 93:0.040540541 97:0.054054054 
